{
  "layers": {
    "0.weight": [
      [
        -0.4909507930278778,
        0.036741118878126144,
        -0.03732507303357124,
        -0.2596292495727539,
        -0.25234121084213257,
        0.1313723474740982,
        -0.005161766428500414,
        -0.10992599278688431,
        -0.23151791095733643,
        -0.05623618885874748,
        -0.029445771127939224,
        -0.11601327359676361
      ],
      [
        -0.21119993925094604,
        -0.4264613389968872,
        -0.21308498084545135,
        0.10836900025606155,
        0.007703643757849932,
        0.4167209565639496,
        0.15702731907367706,
        0.25379326939582825,
        0.1331009715795517,
        0.4286651313304901,
        0.0682794377207756,
        -0.2643279433250427
      ],
      [
        0.003076129127293825,
        -0.18929986655712128,
        -0.16380298137664795,
        -0.45830410718917847,
        -0.48063167929649353,
        -0.3137698769569397,
        -0.12654423713684082,
        -0.31633856892585754,
        0.25448185205459595,
        0.18740592896938324,
        -0.2983407974243164,
        -0.22918950021266937
      ],
      [
        0.23178695142269135,
        0.066393181681633,
        -0.4539753496646881,
        0.42549100518226624,
        -0.3675519824028015,
        0.02443050406873226,
        -0.19125233590602875,
        -0.08913219720125198,
        0.3467157185077667,
        0.42548543214797974,
        -0.3260781764984131,
        -0.021397370845079422
      ],
      [
        -0.14155595004558563,
        -0.05065343901515007,
        -0.36895275115966797,
        -0.3119175136089325,
        -0.22655528783798218,
        0.41995370388031006,
        -0.051223449409008026,
        -0.306866317987442,
        0.4247281551361084,
        -0.14744554460048676,
        -0.13545803725719452,
        0.02441336214542389
      ],
      [
        0.34861594438552856,
        0.06158975511789322,
        0.23971256613731384,
        -0.3355638384819031,
        0.27967584133148193,
        -0.5021862983703613,
        -0.21805806457996368,
        0.2687174081802368,
        0.23798544704914093,
        0.09186776727437973,
        -0.0011537725804373622,
        -0.297199010848999
      ],
      [
        -0.25012558698654175,
        -0.055172886699438095,
        0.3683469593524933,
        -0.4198169708251953,
        -0.22485773265361786,
        0.35474613308906555,
        -0.05248701944947243,
        -0.4246322810649872,
        0.2449609935283661,
        -0.06578624993562698,
        -0.11515433341264725,
        -0.018533555790781975
      ],
      [
        0.15030533075332642,
        0.43835803866386414,
        0.3527202010154724,
        -0.15814557671546936,
        -0.31014201045036316,
        0.11230943351984024,
        0.24733202159404755,
        0.306043803691864,
        0.10987306386232376,
        0.3054332137107849,
        0.14981554448604584,
        -0.04189644008874893
      ],
      [
        0.3033088445663452,
        0.007786683738231659,
        0.11047714948654175,
        -0.37843361496925354,
        -0.2844477891921997,
        -0.19637276232242584,
        -0.024662651121616364,
        -0.3713410794734955,
        0.4697887897491455,
        0.33559390902519226,
        -0.4779532551765442,
        -0.4720243513584137
      ],
      [
        0.28574666380882263,
        -0.021800188347697258,
        -0.025567222386598587,
        -0.4537906348705292,
        -0.04991772398352623,
        -0.315707802772522,
        -0.06859276443719864,
        0.0966334268450737,
        -0.015512269921600819,
        -0.5657411217689514,
        -0.0486019141972065,
        0.4695053994655609
      ],
      [
        0.5078226327896118,
        -0.37634992599487305,
        0.1880103200674057,
        -0.1587158739566803,
        -0.3557775914669037,
        -0.4887888729572296,
        0.14069214463233948,
        0.09514734148979187,
        0.24232031404972076,
        0.011553593911230564,
        0.1850910633802414,
        0.19595235586166382
      ],
      [
        0.28086957335472107,
        0.07528390735387802,
        -0.2588626444339752,
        -0.08629047870635986,
        0.434506356716156,
        -0.3765154778957367,
        0.27156248688697815,
        0.07825159281492233,
        -0.12559695541858673,
        0.11797679960727692,
        -0.04013733193278313,
        -0.32471874356269836
      ],
      [
        -0.2050199806690216,
        -0.011847729794681072,
        0.4106844663619995,
        -0.10700830817222595,
        -0.3405390679836273,
        0.35289350152015686,
        -0.2137870341539383,
        0.28640517592430115,
        -0.24471880495548248,
        -0.1720428317785263,
        -0.02362894080579281,
        0.10241556167602539
      ],
      [
        0.40827676653862,
        0.06963863968849182,
        -0.26192229986190796,
        0.5549691915512085,
        0.08238629996776581,
        0.05518981069326401,
        0.326235294342041,
        0.03460846096277237,
        0.3975311517715454,
        -0.17501714825630188,
        -0.46804019808769226,
        -0.28738048672676086
      ],
      [
        0.047516126185655594,
        0.393545001745224,
        0.35641419887542725,
        -0.383134126663208,
        0.3581877052783966,
        -0.411444753408432,
        0.1841014325618744,
        0.18069149553775787,
        0.24297954142093658,
        -0.031968921422958374,
        0.07472013682126999,
        -0.15692304074764252
      ],
      [
        0.3369027376174927,
        -0.09936048090457916,
        -0.45545873045921326,
        0.33278223872184753,
        0.12618811428546906,
        0.03202619403600693,
        -0.37243932485580444,
        -0.2695244550704956,
        0.321249395608902,
        0.02708810195326805,
        -0.11445071548223495,
        -0.17192226648330688
      ],
      [
        0.2119169384241104,
        0.40863096714019775,
        0.2957780063152313,
        -0.22192104160785675,
        0.37254562973976135,
        -0.33420488238334656,
        -0.19416067004203796,
        -0.1640189290046692,
        -0.0629747286438942,
        0.045592911541461945,
        0.11635034531354904,
        -0.12448947131633759
      ],
      [
        0.04672425985336304,
        0.44559118151664734,
        -0.11822598427534103,
        -0.11967280507087708,
        -0.3129172921180725,
        -0.44836312532424927,
        -0.26619768142700195,
        0.28132593631744385,
        -0.0016763091553002596,
        0.12969721853733063,
        -0.4537578523159027,
        -0.39635220170021057
      ],
      [
        -0.24573162198066711,
        0.1903475970029831,
        0.041739825159311295,
        -0.5991077423095703,
        -0.52922123670578,
        0.3503340184688568,
        -0.22035452723503113,
        -0.3246895372867584,
        0.362308144569397,
        0.01903076283633709,
        0.26872652769088745,
        0.2913609445095062
      ],
      [
        -0.5181553363800049,
        -0.3992742896080017,
        -0.033213838934898376,
        0.35272204875946045,
        -0.30355870723724365,
        0.27945777773857117,
        -0.4339595437049866,
        0.026868347078561783,
        0.3953436613082886,
        0.38986876606941223,
        -0.3771514594554901,
        -0.016110550612211227
      ],
      [
        0.5278868675231934,
        0.17047128081321716,
        0.4003382921218872,
        0.3968673050403595,
        0.43203204870224,
        -0.05470616742968559,
        -0.024456597864627838,
        0.0858050063252449,
        0.11927682161331177,
        0.16874969005584717,
        -0.04946098476648331,
        0.03614647313952446
      ],
      [
        -0.640065610408783,
        -0.03707177937030792,
        -0.023519836366176605,
        -0.13160821795463562,
        0.5464993119239807,
        -0.4194495677947998,
        0.34294867515563965,
        0.13184669613838196,
        -0.10445023328065872,
        -0.21803678572177887,
        0.14848898351192474,
        -0.3031854033470154
      ],
      [
        -0.3680698573589325,
        -0.4533802270889282,
        0.4586864411830902,
        0.01957070641219616,
        -0.12037748843431473,
        0.44004881381988525,
        0.002708972431719303,
        -0.02076781913638115,
        -0.22475019097328186,
        -0.16963405907154083,
        -0.06814903020858765,
        0.0031380546279251575
      ],
      [
        0.049202390015125275,
        -0.08303946256637573,
        -0.05259038880467415,
        -0.5422292351722717,
        0.18484723567962646,
        0.149574413895607,
        0.07124615460634232,
        -0.3438854217529297,
        0.46174541115760803,
        -0.1873423457145691,
        -0.09072008728981018,
        -0.19857794046401978
      ],
      [
        -0.5618917942047119,
        -0.18625155091285706,
        0.2183016985654831,
        0.37993085384368896,
        -0.34899625182151794,
        0.08229616284370422,
        -0.45041602849960327,
        -0.439673513174057,
        0.35028111934661865,
        0.16703404486179352,
        -0.4388805329799652,
        -0.2993665933609009
      ],
      [
        -0.597869873046875,
        0.3461070954799652,
        -0.066432885825634,
        0.5722605586051941,
        0.2779408395290375,
        -0.3262631297111511,
        -0.2730717658996582,
        -0.24072453379631042,
        -0.016593391075730324,
        0.5460747480392456,
        0.12267213314771652,
        -0.5662345290184021
      ],
      [
        -0.2717275321483612,
        0.00881578866392374,
        0.3752841651439667,
        -0.160122811794281,
        -0.29195934534072876,
        0.4648060202598572,
        0.3877169191837311,
        0.13910925388336182,
        -0.32464176416397095,
        0.1039944663643837,
        -0.35591933131217957,
        -0.22141291201114655
      ],
      [
        -0.45771270990371704,
        0.008164061233401299,
        0.10667329281568527,
        0.3184919059276581,
        -0.27157917618751526,
        0.5396823883056641,
        -0.15922078490257263,
        -0.2602766156196594,
        0.12631531059741974,
        0.015014734119176865,
        -0.23736459016799927,
        0.15490759909152985
      ],
      [
        0.6011857390403748,
        -0.2907871603965759,
        0.27261021733283997,
        0.4317609369754791,
        -0.43821820616722107,
        0.0060102976858615875,
        0.11749064922332764,
        0.08758270740509033,
        0.06670964509248734,
        0.016195310279726982,
        -0.38274431228637695,
        -0.297909677028656
      ],
      [
        -0.22005674242973328,
        -0.5384646058082581,
        0.18032674491405487,
        0.0025429653469473124,
        0.15661759674549103,
        0.19542956352233887,
        0.03296023979783058,
        0.21289300918579102,
        -0.1713106781244278,
        0.1424492746591568,
        0.22231170535087585,
        -0.21794404089450836
      ],
      [
        -0.06987496465444565,
        -0.2500994801521301,
        0.09831321984529495,
        0.5071316957473755,
        0.2217651903629303,
        0.4574061632156372,
        -0.12856881320476532,
        -0.11451298743486404,
        0.2605758607387543,
        0.09327127039432526,
        -0.11914866417646408,
        -0.34083160758018494
      ],
      [
        -0.48003923892974854,
        0.373277485370636,
        -0.009756091050803661,
        -0.05993922799825668,
        0.29315638542175293,
        -0.13622309267520905,
        0.22910469770431519,
        0.3024507164955139,
        -0.34917500615119934,
        0.18349634110927582,
        0.05449153110384941,
        0.17431394755840302
      ]
    ],
    "0.bias": [
      0.4553487300872803,
      0.31068384647369385,
      0.4594324231147766,
      0.11300983279943466,
      0.1643533706665039,
      0.34709274768829346,
      0.2483135163784027,
      0.3595902621746063,
      0.2522282600402832,
      -0.13918104767799377,
      0.2856428325176239,
      0.4671511650085449,
      0.3239113688468933,
      0.3837291896343231,
      0.1574711948633194,
      0.14247415959835052,
      0.27515754103660583,
      0.2721448242664337,
      0.4215809106826782,
      -0.09492090344429016,
      0.2030830830335617,
      0.1671055406332016,
      0.1939576417207718,
      0.44517073035240173,
      -0.06360174715518951,
      0.38924330472946167,
      0.10755008459091187,
      0.21746088564395905,
      0.11157866567373276,
      -0.01878226362168789,
      0.07105419784784317,
      0.20528624951839447
    ],
    "2.weight": [
      [
        0.16747097671031952,
        0.19766560196876526,
        0.19992077350616455,
        0.07261490076780319,
        0.16551601886749268,
        0.09630944579839706,
        0.36272844672203064,
        0.21528977155685425,
        0.3348062336444855,
        -0.2291203737258911,
        0.19350312650203705,
        0.18773385882377625,
        0.027949649840593338,
        0.08081797510385513,
        0.26748770475387573,
        0.26032790541648865,
        0.31299448013305664,
        0.3059084713459015,
        0.292031466960907,
        -0.008331958204507828,
        0.010789128951728344,
        0.07333940267562866,
        0.053096018731594086,
        0.1337055265903473,
        0.017616255208849907,
        0.19816350936889648,
        0.17073889076709747,
        0.3094075620174408,
        0.28536751866340637,
        -0.057159822434186935,
        0.04319058731198311,
        0.10948739945888519
      ],
      [
        0.1938599795103073,
        0.233357235789299,
        0.3587370216846466,
        -0.42877236008644104,
        0.3117727041244507,
        0.1510184109210968,
        0.42395588755607605,
        0.3580133020877838,
        0.29435721039772034,
        0.4877692759037018,
        0.43468019366264343,
        -0.04517943784594536,
        0.41740232706069946,
        -0.5685116052627563,
        0.26274630427360535,
        -0.24180452525615692,
        -0.0032949906308203936,
        0.011340404860675335,
        0.23488888144493103,
        0.1477815806865692,
        -0.2935677766799927,
        -0.05505760386586189,
        0.16687485575675964,
        0.3870518207550049,
        0.08523764461278915,
        -0.4699695110321045,
        0.35198888182640076,
        0.2438059002161026,
        -0.28966355323791504,
        0.33380866050720215,
        0.1564958542585373,
        0.12441828846931458
      ],
      [
        0.03245967999100685,
        0.21975737810134888,
        -0.016483863815665245,
        -0.1843980997800827,
        -0.06523938477039337,
        0.051168400794267654,
        -0.07166773825883865,
        0.11083219200372696,
        -0.1328616887331009,
        0.2809293568134308,
        0.04161025956273079,
        -0.050837572664022446,
        0.15713095664978027,
        -0.012119468301534653,
        -0.14915069937705994,
        -0.13956861197948456,
        -0.1423187553882599,
        -0.1589641124010086,
        -0.041655827313661575,
        0.015893347561359406,
        -0.11300352215766907,
        -0.032631684094667435,
        -0.036164313554763794,
        -0.016583232209086418,
        -0.16317373514175415,
        -0.20080550014972687,
        -0.015306913293898106,
        -0.07451377809047699,
        -0.19447948038578033,
        0.10689274966716766,
        0.10307439416646957,
        0.1257021427154541
      ],
      [
        0.27241766452789307,
        -0.07010121643543243,
        0.024377189576625824,
        0.12261918187141418,
        0.3427884876728058,
        0.12136210501194,
        0.1854826956987381,
        0.07668653875589371,
        0.11082576960325241,
        0.17589102685451508,
        0.2251310646533966,
        0.01019930001348257,
        0.2593003511428833,
        -0.08010560274124146,
        0.008172820322215557,
        0.0620979443192482,
        0.21558545529842377,
        0.33995553851127625,
        0.2047046422958374,
        0.33905649185180664,
        -0.1406022608280182,
        -0.43334558606147766,
        -0.09066317230463028,
        0.3619031012058258,
        0.29892101883888245,
        -0.2358517050743103,
        0.14493976533412933,
        0.368283748626709,
        -0.0689331665635109,
        0.10306419432163239,
        0.16467434167861938,
        0.016726559028029442
      ],
      [
        0.29293888807296753,
        -0.09960918128490448,
        0.20380660891532898,
        0.10718835890293121,
        0.3405102491378784,
        0.22639918327331543,
        0.09277273714542389,
        0.16994708776474,
        0.19503307342529297,
        0.06847438961267471,
        0.18228945136070251,
        0.012213275767862797,
        0.056185003370046616,
        0.10361047834157944,
        0.28765085339546204,
        -0.014956561848521233,
        0.1566283255815506,
        0.2840207815170288,
        0.2384181171655655,
        0.23008432984352112,
        0.25446635484695435,
        0.2308298796415329,
        0.19558395445346832,
        0.03127022087574005,
        0.07760974764823914,
        -0.1730891615152359,
        0.12909485399723053,
        0.17519834637641907,
        0.10324715822935104,
        -0.09958122670650482,
        -0.19652630388736725,
        0.24579492211341858
      ],
      [
        0.2639051079750061,
        0.35967060923576355,
        -0.08606114983558655,
        -0.20884209871292114,
        0.09109732508659363,
        -0.2852902114391327,
        0.3940817713737488,
        0.1921706199645996,
        -0.043682489544153214,
        -0.38241076469421387,
        0.28104811906814575,
        -0.3400757312774658,
        0.26246699690818787,
        -0.36694833636283875,
        -0.4685381054878235,
        -0.2755463719367981,
        -0.08183541148900986,
        -0.19330723583698273,
        0.22088004648685455,
        -0.053300924599170685,
        -0.23999306559562683,
        0.09060737490653992,
        0.39916133880615234,
        0.1336337774991989,
        -0.08653049916028976,
        -0.06265714019536972,
        0.22596919536590576,
        0.23691268265247345,
        -0.15712469816207886,
        0.3565795123577118,
        0.21384701132774353,
        0.025496939197182655
      ],
      [
        0.10063638538122177,
        -0.16910724341869354,
        0.14286985993385315,
        0.12369397282600403,
        -0.06426604092121124,
        0.297453910112381,
        -0.017791297286748886,
        0.19801591336727142,
        0.25472787022590637,
        -0.29232144355773926,
        0.016818108037114143,
        0.3386387825012207,
        0.041505616158246994,
        0.3118964433670044,
        0.029272763058543205,
        0.3416908383369446,
        0.1603204905986786,
        0.24653583765029907,
        -0.06800443679094315,
        -0.0633246973156929,
        0.36820900440216064,
        0.37301233410835266,
        -0.012127128429710865,
        0.04701077938079834,
        0.11395593732595444,
        0.17060266435146332,
        0.38796958327293396,
        -0.18043582141399384,
        0.4924493134021759,
        -0.03076210990548134,
        0.02301083505153656,
        0.3419351577758789
      ],
      [
        -0.06532421708106995,
        0.24617743492126465,
        0.18078304827213287,
        0.03541238605976105,
        0.14064840972423553,
        0.17803241312503815,
        0.16372205317020416,
        0.28337809443473816,
        0.03774469345808029,
        0.38577014207839966,
        -0.09433193504810333,
        -0.16184549033641815,
        -0.02339433692395687,
        -0.02935870550572872,
        0.22640365362167358,
        0.08163745701313019,
        -0.08853037655353546,
        0.019067687913775444,
        0.2989920377731323,
        0.3228762149810791,
        -0.22403176128864288,
        -0.3980396091938019,
        0.13168026506900787,
        0.1138298511505127,
        0.10959874838590622,
        -0.00283783208578825,
        0.03865450993180275,
        0.22069518268108368,
        -0.24249167740345,
        -0.012501674704253674,
        0.3213641047477722,
        -0.28628116846084595
      ],
      [
        0.15495629608631134,
        0.2826671600341797,
        0.18277134001255035,
        0.14320512115955353,
        0.14604677259922028,
        0.1740485429763794,
        0.07584217190742493,
        0.1634746938943863,
        0.10341286659240723,
        -0.09359361976385117,
        0.13382740318775177,
        0.2274690419435501,
        0.15946678817272186,
        0.17216496169567108,
        0.029897455126047134,
        0.3134511709213257,
        0.06687042117118835,
        0.31611695885658264,
        0.06586463749408722,
        0.16793526709079742,
        0.20109093189239502,
        -0.18011561036109924,
        0.1890728920698166,
        0.020938297733664513,
        0.274611234664917,
        0.19582240283489227,
        0.011550362221896648,
        0.3318474590778351,
        0.2756829559803009,
        0.0014900675741955638,
        0.2769571840763092,
        -0.08941704779863358
      ],
      [
        0.14526605606079102,
        -0.04012598097324371,
        0.14436542987823486,
        0.002344386652112007,
        0.020887622609734535,
        0.21468238532543182,
        0.3882928490638733,
        0.3588576018810272,
        0.2808885872364044,
        -0.2390267550945282,
        -0.08216270059347153,
        0.24017362296581268,
        0.28122368454933167,
        0.09930841624736786,
        0.3345050513744354,
        -0.06882310658693314,
        0.04754352569580078,
        0.22910036146640778,
        0.3058291971683502,
        0.13815250992774963,
        0.18448865413665771,
        0.16305339336395264,
        0.13047267496585846,
        0.3478967249393463,
        0.03653792664408684,
        -0.15436102449893951,
        0.4051750600337982,
        0.009554027579724789,
        0.2260386198759079,
        -0.07390705496072769,
        -0.0066659110598266125,
        0.06689828634262085
      ],
      [
        0.03273269906640053,
        0.23080997169017792,
        0.12770836055278778,
        0.3572414815425873,
        0.1389259248971939,
        0.09579849988222122,
        0.13095690310001373,
        0.19363589584827423,
        0.1658094972372055,
        0.346958726644516,
        0.39673858880996704,
        0.25919467210769653,
        0.31141597032546997,
        0.22613514959812164,
        0.3207491934299469,
        0.3102724552154541,
        0.018911294639110565,
        0.2844274044036865,
        0.03535202518105507,
        0.13481737673282623,
        0.27711597084999084,
        0.25597473978996277,
        0.31594544649124146,
        0.3265025317668915,
        0.15389244258403778,
        0.06769300997257233,
        0.3082529306411743,
        0.0008562483126297593,
        0.18017996847629547,
        0.1670461893081665,
        0.3571074903011322,
        0.2832743525505066
      ],
      [
        0.1311606764793396,
        0.10586031526327133,
        0.007337299641221762,
        -0.018164345994591713,
        0.35623615980148315,
        -0.480228453874588,
        0.17595677077770233,
        0.2941879332065582,
        0.06150265410542488,
        -0.13770227134227753,
        -0.37271013855934143,
        -0.22058536112308502,
        0.1988290399312973,
        -0.32203131914138794,
        -0.16568873822689056,
        -0.18585239350795746,
        -0.11181750148534775,
        0.08115614950656891,
        0.2657886743545532,
        0.16669155657291412,
        -0.22857721149921417,
        -0.20657578110694885,
        0.2753998935222626,
        0.0451984778046608,
        0.16585379838943481,
        -0.36281728744506836,
        0.37193480134010315,
        0.3560907542705536,
        -0.19426731765270233,
        0.06509443372488022,
        -0.1846214383840561,
        0.20169487595558167
      ],
      [
        0.1339629739522934,
        0.1810353845357895,
        0.07626917958259583,
        0.37961605191230774,
        -0.042399827390909195,
        0.040682751685380936,
        -0.31451359391212463,
        -0.004138169344514608,
        -0.26714614033699036,
        0.09037147462368011,
        -0.010162003338336945,
        -0.24605804681777954,
        -0.28384342789649963,
        0.28354501724243164,
        -0.031459465622901917,
        0.14334309101104736,
        0.09612613171339035,
        -0.23711402714252472,
        -0.2583969831466675,
        0.31724104285240173,
        -0.15168793499469757,
        -0.023369789123535156,
        0.09357623010873795,
        -0.24243302643299103,
        0.3603523373603821,
        0.27170124650001526,
        -0.3513379395008087,
        0.09527271240949631,
        0.17766641080379486,
        0.13318435847759247,
        0.3264530599117279,
        -0.034831058233976364
      ],
      [
        0.30377116799354553,
        0.27515092492103577,
        -0.10162115842103958,
        0.14631883800029755,
        0.18331597745418549,
        -0.26724398136138916,
        0.09821656346321106,
        0.05628614127635956,
        -0.2656932473182678,
        0.14313675463199615,
        -0.0724881961941719,
        -0.25290045142173767,
        0.32020965218544006,
        0.16581131517887115,
        -0.38999560475349426,
        0.2786942422389984,
        -0.23297007381916046,
        0.03584988787770271,
        0.037475451827049255,
        0.30707427859306335,
        -0.03475772589445114,
        0.04662967100739479,
        0.13354581594467163,
        -0.2549978792667389,
        0.40390732884407043,
        0.2546912729740143,
        0.02728644758462906,
        0.34134137630462646,
        -0.015735171735286713,
        0.08355105668306351,
        0.3491992652416229,
        0.056624121963977814
      ],
      [
        0.37956154346466064,
        -0.08823440223932266,
        0.006408718414604664,
        -0.006240741815418005,
        0.276622474193573,
        0.1014854684472084,
        0.06532927602529526,
        0.37310147285461426,
        0.3410642445087433,
        -0.2140229195356369,
        0.0003512940020300448,
        0.27775344252586365,
        0.1043865904211998,
        0.21856427192687988,
        0.2847141921520233,
        0.06695204228162766,
        0.24499091506004333,
        0.13060247898101807,
        0.01839158684015274,
        0.14247249066829681,
        0.37348079681396484,
        0.24413084983825684,
        0.020903317257761955,
        0.2024366408586502,
        0.4496549963951111,
        0.39692434668540955,
        0.46258509159088135,
        0.1270686388015747,
        0.5582776069641113,
        -0.10495930165052414,
        0.006639041006565094,
        0.1879945993423462
      ],
      [
        0.08433634042739868,
        -0.0019383867038413882,
        0.11955448240041733,
        0.4331044554710388,
        0.25127846002578735,
        0.12046418339014053,
        0.0002060650585917756,
        0.21651691198349,
        0.30183225870132446,
        -0.2725399434566498,
        0.0790763571858406,
        0.042548615485429764,
        0.18822896480560303,
        0.37454068660736084,
        0.2624153792858124,
        0.3517826199531555,
        0.3384113609790802,
        0.15654975175857544,
        0.04103823006153107,
        0.08694766461849213,
        0.12415401637554169,
        0.2898840010166168,
        -0.15233075618743896,
        0.10947635769844055,
        0.11142471432685852,
        0.42488792538642883,
        0.12685349583625793,
        0.007243582513183355,
        0.2426736205816269,
        0.12077116221189499,
        0.26170164346694946,
        0.17699408531188965
      ]
    ],
    "2.bias": [
      0.26748859882354736,
      0.24565958976745605,
      -0.009939772076904774,
      0.29059818387031555,
      0.158566415309906,
      0.03572605177760124,
      0.04884961247444153,
      0.21958093345165253,
      0.19274330139160156,
      0.006396327633410692,
      0.04312855377793312,
      -0.08648993074893951,
      0.1291559636592865,
      0.11716773360967636,
      0.04475563392043114,
      0.15900225937366486
    ],
    "4.weight": [
      [
        -0.041069623082876205,
        -0.3041530251502991,
        -0.24675162136554718,
        -0.3054738938808441,
        0.022652518004179,
        -0.4878251254558563,
        0.4583160877227783,
        -0.5011700987815857,
        -0.07201949506998062,
        0.05617909878492355,
        0.08516990393400192,
        -0.4389674663543701,
        -0.32883456349372864,
        -0.5461668968200684,
        0.1285725235939026,
        0.4675772190093994
      ],
      [
        -0.16303643584251404,
        -0.049393169581890106,
        0.1898285448551178,
        -0.11942552775144577,
        -0.3188701272010803,
        -0.33435991406440735,
        -0.12243658304214478,
        -0.13716065883636475,
        -0.11297624558210373,
        -0.300925612449646,
        -0.49707338213920593,
        -0.018724288791418076,
        -0.28161948919296265,
        -0.06814112514257431,
        -0.27861618995666504,
        -0.23618797957897186
      ],
      [
        -0.010296432301402092,
        0.5792361497879028,
        0.33139824867248535,
        0.08950250595808029,
        -0.03806844726204872,
        0.6149706244468689,
        -0.3919236660003662,
        0.10979953408241272,
        0.035800933837890625,
        -0.08042030036449432,
        -0.10655812919139862,
        0.5054793357849121,
        -0.36836573481559753,
        0.09028197079896927,
        -0.37932440638542175,
        0.00045189892989583313
      ],
      [
        -0.06666845828294754,
        -0.35958248376846313,
        0.16648083925247192,
        -0.07651091367006302,
        -0.4312456548213959,
        0.013324609026312828,
        -0.29099714756011963,
        0.10581473261117935,
        0.10671776533126831,
        -0.5380424857139587,
        -0.07933857291936874,
        -0.17295190691947937,
        0.41597142815589905,
        0.3423684537410736,
        -0.25352922081947327,
        0.16618956625461578
      ],
      [
        -0.281179815530777,
        0.2769336700439453,
        0.34430959820747375,
        -0.30041638016700745,
        -0.2656233310699463,
        0.2716326415538788,
        -0.2205875962972641,
        -0.19020488858222961,
        -0.31889352202415466,
        -0.3909117877483368,
        0.31482577323913574,
        -0.39854696393013,
        0.09216170012950897,
        -0.0495198592543602,
        -0.3836769759654999,
        -0.40208491683006287
      ],
      [
        -0.14656776189804077,
        -0.38212767243385315,
        -0.16103996336460114,
        -0.0731995552778244,
        -0.36294928193092346,
        -0.16981765627861023,
        -0.36450523138046265,
        -0.09980909526348114,
        -0.30343952775001526,
        -0.3036680221557617,
        -0.27305224537849426,
        0.11381945013999939,
        0.12471987307071686,
        -0.18859535455703735,
        -0.001254005474038422,
        -0.37428581714630127
      ],
      [
        -0.3198263645172119,
        -0.4052252173423767,
        0.1300959587097168,
        -0.2775178551673889,
        0.042456068098545074,
        -0.05418992415070534,
        -0.08831772953271866,
        -0.03842012584209442,
        -0.34134963154792786,
        0.013817268423736095,
        -0.07967160642147064,
        -0.25284355878829956,
        0.15624509751796722,
        -0.42652779817581177,
        -0.4204198122024536,
        -0.2773165702819824
      ]
    ],
    "4.bias": [
      0.10501405596733093,
      0.029868565499782562,
      -0.11851971596479416,
      -0.27179551124572754,
      -0.2565968334674835,
      -0.016063936054706573,
      -0.19809220731258392
    ]
  },
  "scaler": {
    "mean": [
      74.67213114754098,
      1.8851351796603593,
      1.276462522686505,
      0.09050099820387168,
      0.2584563227461987,
      1.2495117451323838,
      10.002747991045968,
      0.010745081775745407,
      0.9892549182547897,
      -0.9053920341319726,
      -0.013304180732821344,
      0.8920878636055305
    ],
    "scale": [
      33.67964862530165,
      0.1804383088968191,
      0.6521192044836479,
      0.04786423656482785,
      0.26700269571169766,
      0.8927885147133419,
      20.266135364306436,
      0.030970652238936056,
      0.03097065526913151,
      0.9956470372181063,
      0.23029636560433828,
      0.9816115080690454
    ]
  },
  "meta": {
    "feature_names": [
      "load_lbs",
      "grip_ratio_median",
      "grip_ratio_range",
      "grip_uneven_median",
      "grip_uneven_norm",
      "bar_tilt_median_deg",
      "bar_tilt_deg_max",
      "tracking_bad_ratio",
      "tracking_quality",
      "wrist_y_min",
      "wrist_y_max",
      "wrist_y_range"
    ],
    "tags": [
      "no_major_issues",
      "hands_too_wide",
      "hands_too_narrow",
      "grip_uneven",
      "barbell_tilted",
      "bar_depth_insufficient",
      "incomplete_lockout"
    ],
    "hidden_layers": [
      32,
      16
    ],
    "threshold": 0.5,
    "epochs_trained": 200,
    "best_dev_loss": 0.10729414969682693,
    "dev_fraction": 0.2
  }
}